digraph Tree {
node [shape=box] ;
0 [label="X[1] <= 0.5\nmse = 192185.1943\nsamples = 3000\nvalue = 590.1268"] ;
1 [label="X[13] <= 0.5\nmse = 75912.1469\nsamples = 2172\nvalue = 818.6132"] ;
0 -> 1 [labeldistance=2.5, labelangle=45, headlabel="True"] ;
2 [label="X[38] <= 0.5\nmse = 52455.4717\nsamples = 2080\nvalue = 852.2089"] ;
1 -> 2 ;
3 [label="X[42] <= 0.5\nmse = 11054.2971\nsamples = 1498\nvalue = 898.187"] ;
2 -> 3 ;
4 [label="X[2] <= 0.5\nmse = 192.0742\nsamples = 1376\nvalue = 911.4881"] ;
3 -> 4 ;
5 [label="X[11] <= 0.5\nmse = 70.6359\nsamples = 984\nvalue = 904.3114"] ;
4 -> 5 ;
6 [label="X[41] <= 0.5\nmse = 53.9949\nsamples = 851\nvalue = 903.0247"] ;
5 -> 6 ;
7 [label="X[5] <= 0.5\nmse = 48.6181\nsamples = 630\nvalue = 901.5686"] ;
6 -> 7 ;
8 [label="X[26] <= 0.5\nmse = 46.8135\nsamples = 611\nvalue = 901.2889"] ;
7 -> 8 ;
9 [label="X[20] <= 0.5\nmse = 47.203\nsamples = 546\nvalue = 900.8321"] ;
8 -> 9 ;
10 [label="X[14] <= 0.5\nmse = 46.4257\nsamples = 507\nvalue = 900.4342"] ;
9 -> 10 ;
11 [label="X[7] <= 0.5\nmse = 37.3665\nsamples = 476\nvalue = 900.8032"] ;
10 -> 11 ;
12 [label="X[29] <= 0.5\nmse = 31.2191\nsamples = 436\nvalue = 901.2623"] ;
11 -> 12 ;
13 [label="X[3] <= 0.5\nmse = 28.5845\nsamples = 394\nvalue = 900.8947"] ;
12 -> 13 ;
14 [label="X[33] <= 0.5\nmse = 49.1007\nsamples = 24\nvalue = 896.3897"] ;
13 -> 14 ;
15 [label="X[47] <= 0.5\nmse = 19.5859\nsamples = 22\nvalue = 897.3526"] ;
14 -> 15 ;
16 [label="X[28] <= 0.5\nmse = 14.6931\nsamples = 20\nvalue = 898.1025"] ;
15 -> 16 ;
17 [label="X[30] <= 0.5\nmse = 14.8949\nsamples = 16\nvalue = 897.2692"] ;
16 -> 17 ;
18 [label="mse = -0.0\nsamples = 12\nvalue = 896.2727"] ;
17 -> 18 ;
19 [label="X[16] <= 0.5\nmse = 47.6637\nsamples = 4\nvalue = 900.2587"] ;
17 -> 19 ;
20 [label="mse = 0.0\nsamples = 3\nvalue = 896.2727"] ;
19 -> 20 ;
21 [label="mse = -0.0\nsamples = 1\nvalue = 912.2166"] ;
19 -> 21 ;
22 [label="mse = 0.0\nsamples = 4\nvalue = 901.4355"] ;
16 -> 22 ;
23 [label="X[16] <= 0.5\nmse = 6.6635\nsamples = 2\nvalue = 889.8541"] ;
15 -> 23 ;
24 [label="mse = 0.0\nsamples = 1\nvalue = 892.4355"] ;
23 -> 24 ;
25 [label="mse = 0.0\nsamples = 1\nvalue = 887.2727"] ;
23 -> 25 ;
26 [label="X[9] <= 0.5\nmse = 251.3695\nsamples = 2\nvalue = 885.7976"] ;
14 -> 26 ;
27 [label="mse = 0.0\nsamples = 1\nvalue = 901.6522"] ;
26 -> 27 ;
28 [label="mse = 0.0\nsamples = 1\nvalue = 869.9429"] ;
26 -> 28 ;
29 [label="X[30] <= 0.5\nmse = 25.8519\nsamples = 370\nvalue = 901.1869"] ;
13 -> 29 ;
30 [label="X[22] <= 0.5\nmse = 24.9567\nsamples = 363\nvalue = 901.0486"] ;
29 -> 30 ;
31 [label="X[45] <= 0.5\nmse = 24.571\nsamples = 353\nvalue = 901.1975"] ;
30 -> 31 ;
32 [label="X[8] <= 0.5\nmse = 15.4243\nsamples = 295\nvalue = 900.8629"] ;
31 -> 32 ;
33 [label="X[47] <= 0.5\nmse = 14.5965\nsamples = 281\nvalue = 900.6622"] ;
32 -> 33 ;
34 [label="X[43] <= 0.5\nmse = 12.9829\nsamples = 273\nvalue = 900.9033"] ;
33 -> 34 ;
35 [label="X[19] <= 0.5\nmse = 12.1693\nsamples = 248\nvalue = 901.0648"] ;
34 -> 35 ;
36 [label="X[27] <= 0.5\nmse = 9.9159\nsamples = 243\nvalue = 900.9237"] ;
35 -> 36 ;
37 [label="X[44] <= 0.5\nmse = 40.8839\nsamples = 12\nvalue = 898.8303"] ;
36 -> 37 ;
38 [label="X[16] <= 0.5\nmse = 12.5049\nsamples = 8\nvalue = 902.8644"] ;
37 -> 38 ;
39 [label="mse = 0.0\nsamples = 3\nvalue = 901.6522"] ;
38 -> 39 ;
40 [label="X[39] <= 0.5\nmse = 18.5971\nsamples = 5\nvalue = 903.5917"] ;
38 -> 40 ;
41 [label="mse = 0.0\nsamples = 1\nvalue = 901.4355"] ;
40 -> 41 ;
42 [label="mse = 21.7935\nsamples = 4\nvalue = 904.1308"] ;
40 -> 42 ;
43 [label="mse = 0.0\nsamples = 4\nvalue = 890.7622"] ;
37 -> 43 ;
44 [label="X[39] <= 0.5\nmse = 8.0677\nsamples = 231\nvalue = 901.0324"] ;
36 -> 44 ;
45 [label="mse = 0.0\nsamples = 166\nvalue = 901.4355"] ;
44 -> 45 ;
46 [label="mse = 27.1965\nsamples = 65\nvalue = 900.003"] ;
44 -> 46 ;
47 [label="X[46] <= 0.5\nmse = 73.6465\nsamples = 5\nvalue = 907.9257"] ;
35 -> 47 ;
48 [label="mse = 0.0\nsamples = 4\nvalue = 912.2166"] ;
47 -> 48 ;
49 [label="mse = -0.0\nsamples = 1\nvalue = 890.7622"] ;
47 -> 49 ;
50 [label="X[19] <= 0.5\nmse = 18.2271\nsamples = 25\nvalue = 899.3008"] ;
34 -> 50 ;
51 [label="mse = 0.0\nsamples = 20\nvalue = 901.4355"] ;
50 -> 51 ;
52 [label="mse = 0.0\nsamples = 5\nvalue = 890.7622"] ;
50 -> 52 ;
53 [label="mse = 0.0\nsamples = 8\nvalue = 892.4355"] ;
33 -> 53 ;
54 [label="X[46] <= 0.5\nmse = 15.0076\nsamples = 14\nvalue = 904.8907"] ;
32 -> 54 ;
55 [label="X[44] <= 0.5\nmse = 0.4719\nsamples = 11\nvalue = 902.8928"] ;
54 -> 55 ;
56 [label="mse = -0.0\nsamples = 9\nvalue = 903.2166"] ;
55 -> 56 ;
57 [label="mse = 0.0\nsamples = 2\nvalue = 901.4355"] ;
55 -> 57 ;
58 [label="mse = 0.0\nsamples = 3\nvalue = 912.2166"] ;
54 -> 58 ;
59 [label="X[27] <= 0.5\nmse = 67.6263\nsamples = 58\nvalue = 902.8996"] ;
31 -> 59 ;
60 [label="X[8] <= 0.5\nmse = 0.0442\nsamples = 4\nvalue = 890.9725"] ;
59 -> 60 ;
61 [label="mse = 0.0\nsamples = 2\nvalue = 890.7622"] ;
60 -> 61 ;
62 [label="mse = 0.0\nsamples = 2\nvalue = 891.1828"] ;
60 -> 62 ;
63 [label="mse = 61.3145\nsamples = 54\nvalue = 903.783"] ;
59 -> 63 ;
64 [label="X[39] <= 0.5\nmse = 10.1482\nsamples = 10\nvalue = 895.7911"] ;
30 -> 64 ;
65 [label="X[46] <= 0.5\nmse = 2.7292\nsamples = 8\nvalue = 894.38"] ;
64 -> 65 ;
66 [label="mse = 0.0\nsamples = 5\nvalue = 893.1003"] ;
65 -> 66 ;
67 [label="mse = -0.0\nsamples = 3\nvalue = 896.5127"] ;
65 -> 67 ;
68 [label="mse = 0.0\nsamples = 2\nvalue = 901.4355"] ;
64 -> 68 ;
69 [label="X[8] <= 0.5\nmse = 19.8367\nsamples = 7\nvalue = 908.3594"] ;
29 -> 69 ;
70 [label="mse = 0.0\nsamples = 4\nvalue = 912.2166"] ;
69 -> 70 ;
71 [label="mse = -0.0\nsamples = 3\nvalue = 903.2166"] ;
69 -> 71 ;
72 [label="X[47] <= 0.5\nmse = 42.7751\nsamples = 42\nvalue = 904.7107"] ;
12 -> 72 ;
73 [label="X[43] <= 0.5\nmse = 30.6604\nsamples = 41\nvalue = 905.2704"] ;
72 -> 73 ;
74 [label="X[10] <= 0.5\nmse = 26.0332\nsamples = 40\nvalue = 905.6331"] ;
73 -> 74 ;
75 [label="X[21] <= 0.5\nmse = 21.0258\nsamples = 14\nvalue = 909.3165"] ;
74 -> 75 ;
76 [label="mse = 0.0\nsamples = 4\nvalue = 902.0664"] ;
75 -> 76 ;
77 [label="mse = 0.0\nsamples = 10\nvalue = 912.2166"] ;
75 -> 77 ;
78 [label="X[44] <= 0.5\nmse = 17.49\nsamples = 26\nvalue = 903.6497"] ;
74 -> 78 ;
79 [label="X[6] <= 0.5\nmse = 8.95\nsamples = 23\nvalue = 902.5323"] ;
78 -> 79 ;
80 [label="mse = 0.0\nsamples = 2\nvalue = 912.2166"] ;
79 -> 80 ;
81 [label="X[3] <= 0.5\nmse = 0.0198\nsamples = 21\nvalue = 901.61"] ;
79 -> 81 ;
82 [label="X[45] <= 0.5\nmse = 0.0107\nsamples = 15\nvalue = 901.6798"] ;
81 -> 82 ;
83 [label="mse = -0.0\nsamples = 14\nvalue = 901.6522"] ;
82 -> 83 ;
84 [label="mse = -0.0\nsamples = 1\nvalue = 902.0664"] ;
82 -> 84 ;
85 [label="mse = 0.0\nsamples = 6\nvalue = 901.4355"] ;
81 -> 85 ;
86 [label="mse = -0.0\nsamples = 3\nvalue = 912.2166"] ;
78 -> 86 ;
87 [label="mse = -0.0\nsamples = 1\nvalue = 890.7622"] ;
73 -> 87 ;
88 [label="mse = -0.0\nsamples = 1\nvalue = 881.7622"] ;
72 -> 88 ;
89 [label="X[22] <= 0.5\nmse = 77.0355\nsamples = 40\nvalue = 895.7992"] ;
11 -> 89 ;
90 [label="X[18] <= 0.5\nmse = 24.868\nsamples = 38\nvalue = 896.8244"] ;
89 -> 90 ;
91 [label="mse = 0.0\nsamples = 10\nvalue = 890.7622"] ;
90 -> 91 ;
92 [label="X[47] <= 0.5\nmse = 15.9368\nsamples = 28\nvalue = 898.9895"] ;
90 -> 92 ;
93 [label="X[9] <= 0.5\nmse = 8.0333\nsamples = 23\nvalue = 900.4142"] ;
92 -> 93 ;
94 [label="X[15] <= 0.5\nmse = 0.0107\nsamples = 20\nvalue = 901.5113"] ;
93 -> 94 ;
95 [label="mse = -0.0\nsamples = 7\nvalue = 901.6522"] ;
94 -> 95 ;
96 [label="mse = 0.0\nsamples = 13\nvalue = 901.4355"] ;
94 -> 96 ;
97 [label="mse = -0.0\nsamples = 3\nvalue = 893.1003"] ;
93 -> 97 ;
98 [label="mse = 0.0\nsamples = 5\nvalue = 892.4355"] ;
92 -> 98 ;
99 [label="X[44] <= 0.5\nmse = 668.7924\nsamples = 2\nvalue = 876.3196"] ;
89 -> 99 ;
100 [label="mse = 0.0\nsamples = 1\nvalue = 850.4585"] ;
99 -> 100 ;
101 [label="mse = -0.0\nsamples = 1\nvalue = 902.1806"] ;
99 -> 101 ;
102 [label="X[39] <= 0.5\nmse = 151.333\nsamples = 31\nvalue = 894.7681"] ;
10 -> 102 ;
103 [label="X[4] <= 0.5\nmse = 47.2815\nsamples = 15\nvalue = 905.4691"] ;
102 -> 103 ;
104 [label="X[6] <= 0.5\nmse = 12.7129\nsamples = 8\nvalue = 910.869"] ;
103 -> 104 ;
105 [label="mse = 0.0\nsamples = 1\nvalue = 901.4355"] ;
104 -> 105 ;
106 [label="mse = 0.0\nsamples = 7\nvalue = 912.2166"] ;
104 -> 106 ;
107 [label="X[21] <= 0.5\nmse = 15.3804\nsamples = 7\nvalue = 899.2979"] ;
103 -> 107 ;
108 [label="mse = 0.0\nsamples = 2\nvalue = 893.1003"] ;
107 -> 108 ;
109 [label="X[9] <= 0.5\nmse = 0.0233\nsamples = 5\nvalue = 901.7769"] ;
107 -> 109 ;
110 [label="mse = -0.0\nsamples = 3\nvalue = 901.6522"] ;
109 -> 110 ;
111 [label="mse = 0.0\nsamples = 2\nvalue = 901.9639"] ;
109 -> 111 ;
112 [label="X[10] <= 0.5\nmse = 40.8805\nsamples = 16\nvalue = 884.7358"] ;
102 -> 112 ;
113 [label="mse = 0.0\nsamples = 14\nvalue = 882.3192"] ;
112 -> 113 ;
114 [label="mse = -0.0\nsamples = 2\nvalue = 901.6522"] ;
112 -> 114 ;
115 [label="X[8] <= 0.5\nmse = 28.4915\nsamples = 39\nvalue = 906.0049"] ;
9 -> 115 ;
116 [label="X[44] <= 0.5\nmse = 26.7971\nsamples = 24\nvalue = 908.7434"] ;
115 -> 116 ;
117 [label="X[40] <= 0.5\nmse = 21.906\nsamples = 21\nvalue = 909.7874"] ;
116 -> 117 ;
118 [label="X[43] <= 0.5\nmse = 11.9937\nsamples = 18\nvalue = 911.1794"] ;
117 -> 118 ;
119 [label="X[7] <= 0.5\nmse = 0.1565\nsamples = 14\nvalue = 912.4232"] ;
118 -> 119 ;
120 [label="mse = 0.0\nsamples = 11\nvalue = 912.2166"] ;
119 -> 120 ;
121 [label="mse = -0.0\nsamples = 3\nvalue = 913.1806"] ;
119 -> 121 ;
122 [label="X[22] <= 0.5\nmse = 29.058\nsamples = 4\nvalue = 906.826"] ;
118 -> 122 ;
123 [label="mse = 0.0\nsamples = 2\nvalue = 901.4355"] ;
122 -> 123 ;
124 [label="mse = -0.0\nsamples = 2\nvalue = 912.2166"] ;
122 -> 124 ;
125 [label="mse = 0.0\nsamples = 3\nvalue = 901.4355"] ;
117 -> 125 ;
126 [label="mse = 0.0\nsamples = 3\nvalue = 901.4355"] ;
116 -> 126 ;
127 [label="X[9] <= 0.5\nmse = 0.0054\nsamples = 15\nvalue = 901.6233"] ;
115 -> 127 ;
128 [label="mse = -0.0\nsamples = 13\nvalue = 901.6522"] ;
127 -> 128 ;
129 [label="mse = 0.0\nsamples = 2\nvalue = 901.4355"] ;
127 -> 129 ;
130 [label="X[46] <= 0.5\nmse = 27.0627\nsamples = 65\nvalue = 905.1264"] ;
8 -> 130 ;
131 [label="X[30] <= 0.5\nmse = 21.1812\nsamples = 55\nvalue = 903.8372"] ;
130 -> 131 ;
132 [label="X[28] <= 0.5\nmse = 14.0951\nsamples = 41\nvalue = 902.7409"] ;
131 -> 132 ;
133 [label="X[36] <= 0.5\nmse = 1.7346\nsamples = 30\nvalue = 901.1852"] ;
132 -> 133 ;
134 [label="X[12] <= 0.5\nmse = 0.0117\nsamples = 27\nvalue = 901.5398"] ;
133 -> 134 ;
135 [label="mse = -0.0\nsamples = 13\nvalue = 901.6522"] ;
134 -> 135 ;
136 [label="mse = 0.0\nsamples = 14\nvalue = 901.4355"] ;
134 -> 136 ;
137 [label="X[7] <= 0.5\nmse = 5.9231\nsamples = 3\nvalue = 897.9937"] ;
133 -> 137 ;
138 [label="mse = 0.0\nsamples = 2\nvalue = 896.2727"] ;
137 -> 138 ;
139 [label="mse = -0.0\nsamples = 1\nvalue = 901.4355"] ;
137 -> 139 ;
140 [label="X[40] <= 0.5\nmse = 23.2041\nsamples = 11\nvalue = 906.9837"] ;
132 -> 140 ;
141 [label="X[47] <= 0.5\nmse = 0.705\nsamples = 6\nvalue = 902.6229"] ;
140 -> 141 ;
142 [label="mse = 0.0\nsamples = 2\nvalue = 901.4355"] ;
141 -> 142 ;
143 [label="mse = 0.0\nsamples = 4\nvalue = 903.2166"] ;
141 -> 143 ;
144 [label="mse = 0.0\nsamples = 5\nvalue = 912.2166"] ;
140 -> 144 ;
145 [label="X[40] <= 0.5\nmse = 28.1044\nsamples = 14\nvalue = 907.0479"] ;
131 -> 145 ;
146 [label="X[4] <= 0.5\nmse = 20.631\nsamples = 9\nvalue = 904.1765"] ;
145 -> 146 ;
147 [label="X[20] <= 0.5\nmse = 0.136\nsamples = 7\nvalue = 901.7548"] ;
146 -> 147 ;
148 [label="mse = 0.0\nsamples = 4\nvalue = 901.4355"] ;
147 -> 148 ;
149 [label="mse = 0.0\nsamples = 3\nvalue = 902.1806"] ;
147 -> 149 ;
150 [label="mse = -0.0\nsamples = 2\nvalue = 912.6522"] ;
146 -> 150 ;
151 [label="mse = 0.0\nsamples = 5\nvalue = 912.2166"] ;
145 -> 151 ;
152 [label="mse = 0.0\nsamples = 10\nvalue = 912.2166"] ;
130 -> 152 ;
153 [label="X[43] <= 0.5\nmse = 23.2265\nsamples = 19\nvalue = 910.5636"] ;
7 -> 153 ;
154 [label="mse = 0.0\nsamples = 17\nvalue = 912.2166"] ;
153 -> 154 ;
155 [label="mse = 0.0\nsamples = 2\nvalue = 896.5127"] ;
153 -> 155 ;
156 [label="X[22] <= 0.5\nmse = 46.05\nsamples = 221\nvalue = 907.1754"] ;
6 -> 156 ;
157 [label="X[27] <= 0.5\nmse = 23.4591\nsamples = 207\nvalue = 908.0311"] ;
156 -> 157 ;
158 [label="X[19] <= 0.5\nmse = 30.4532\nsamples = 98\nvalue = 910.525"] ;
157 -> 158 ;
159 [label="X[5] <= 0.5\nmse = 18.6916\nsamples = 95\nvalue = 911.1491"] ;
158 -> 159 ;
160 [label="X[8] <= 0.5\nmse = 14.9269\nsamples = 86\nvalue = 910.4129"] ;
159 -> 160 ;
161 [label="X[4] <= 0.5\nmse = 16.0503\nsamples = 67\nvalue = 911.1505"] ;
160 -> 161 ;
162 [label="X[18] <= 0.5\nmse = 2.0749\nsamples = 55\nvalue = 912.0206"] ;
161 -> 162 ;
163 [label="X[15] <= 0.5\nmse = 5.2713\nsamples = 21\nvalue = 911.7032"] ;
162 -> 163 ;
164 [label="mse = 0.0\nsamples = 5\nvalue = 912.2166"] ;
163 -> 164 ;
165 [label="mse = 6.8105\nsamples = 16\nvalue = 911.5428"] ;
163 -> 165 ;
166 [label="mse = 0.0\nsamples = 34\nvalue = 912.2166"] ;
162 -> 166 ;
167 [label="mse = 60.7322\nsamples = 12\nvalue = 907.1627"] ;
161 -> 167 ;
168 [label="mse = 2.2824\nsamples = 19\nvalue = 907.812"] ;
160 -> 168 ;
169 [label="mse = -0.0\nsamples = 9\nvalue = 918.1838"] ;
159 -> 169 ;
170 [label="mse = -0.0\nsamples = 3\nvalue = 890.7622"] ;
158 -> 170 ;
171 [label="mse = 6.5515\nsamples = 109\nvalue = 905.7889"] ;
157 -> 171 ;
172 [label="X[6] <= 0.5\nmse = 209.1671\nsamples = 14\nvalue = 894.5232"] ;
156 -> 172 ;
173 [label="mse = 0.0\nsamples = 2\nvalue = 859.4585"] ;
172 -> 173 ;
174 [label="X[3] <= 0.5\nmse = 4.9526\nsamples = 12\nvalue = 900.3673"] ;
172 -> 174 ;
175 [label="mse = -0.0\nsamples = 9\nvalue = 901.6522"] ;
174 -> 175 ;
176 [label="mse = -0.0\nsamples = 3\nvalue = 896.5127"] ;
174 -> 176 ;
177 [label="X[15] <= 0.5\nmse = 98.7417\nsamples = 133\nvalue = 912.5441"] ;
5 -> 177 ;
178 [label="mse = 0.0\nsamples = 11\nvalue = 890.7622"] ;
177 -> 178 ;
179 [label="X[4] <= 0.5\nmse = 61.0091\nsamples = 122\nvalue = 914.5081"] ;
177 -> 179 ;
180 [label="X[39] <= 0.5\nmse = 48.5514\nsamples = 94\nvalue = 912.2429"] ;
179 -> 180 ;
181 [label="X[47] <= 0.5\nmse = 43.9953\nsamples = 59\nvalue = 908.7187"] ;
180 -> 181 ;
182 [label="X[41] <= 0.5\nmse = 30.7122\nsamples = 38\nvalue = 910.6792"] ;
181 -> 182 ;
183 [label="X[5] <= 0.5\nmse = 30.2505\nsamples = 32\nvalue = 909.8315"] ;
182 -> 183 ;
184 [label="X[28] <= 0.5\nmse = 4.8409\nsamples = 29\nvalue = 910.8586"] ;
183 -> 184 ;
185 [label="mse = -0.0\nsamples = 16\nvalue = 912.2166"] ;
184 -> 185 ;
186 [label="X[45] <= 0.5\nmse = 5.7357\nsamples = 13\nvalue = 909.1872"] ;
184 -> 186 ;
187 [label="X[43] <= 0.5\nmse = 4.8066\nsamples = 11\nvalue = 908.6364"] ;
186 -> 187 ;
188 [label="X[40] <= 0.5\nmse = 3.8774\nsamples = 10\nvalue = 908.2784"] ;
187 -> 188 ;
189 [label="mse = 4.9456\nsamples = 7\nvalue = 908.7003"] ;
188 -> 189 ;
190 [label="mse = -0.0\nsamples = 3\nvalue = 907.2938"] ;
188 -> 190 ;
191 [label="mse = 0.0\nsamples = 1\nvalue = 912.2166"] ;
187 -> 191 ;
192 [label="mse = -0.0\nsamples = 2\nvalue = 912.2166"] ;
186 -> 192 ;
193 [label="X[40] <= 0.5\nmse = 167.0991\nsamples = 3\nvalue = 899.9027"] ;
183 -> 193 ;
194 [label="mse = 0.0\nsamples = 2\nvalue = 890.7622"] ;
193 -> 194 ;
195 [label="mse = -0.0\nsamples = 1\nvalue = 918.1838"] ;
193 -> 195 ;
196 [label="X[3] <= 0.5\nmse = 8.902\nsamples = 6\nvalue = 915.2002"] ;
182 -> 196 ;
197 [label="mse = 0.0\nsamples = 3\nvalue = 918.1838"] ;
196 -> 197 ;
198 [label="mse = 0.0\nsamples = 3\nvalue = 912.2166"] ;
196 -> 198 ;
199 [label="X[3] <= 0.5\nmse = 48.4909\nsamples = 21\nvalue = 905.1711"] ;
181 -> 199 ;
200 [label="mse = 0.0\nsamples = 1\nvalue = 929.1838"] ;
199 -> 200 ;
201 [label="X[30] <= 0.5\nmse = 20.6434\nsamples = 20\nvalue = 903.9705"] ;
199 -> 201 ;
202 [label="X[29] <= 0.5\nmse = 19.9446\nsamples = 19\nvalue = 904.2692"] ;
201 -> 202 ;
203 [label="mse = 22.1453\nsamples = 17\nvalue = 904.3931"] ;
202 -> 203 ;
204 [label="mse = 0.0\nsamples = 2\nvalue = 903.2166"] ;
202 -> 204 ;
205 [label="mse = -0.0\nsamples = 1\nvalue = 898.2938"] ;
201 -> 205 ;
206 [label="mse = -0.0\nsamples = 35\nvalue = 918.1838"] ;
180 -> 206 ;
207 [label="X[47] <= 0.5\nmse = 27.7806\nsamples = 28\nvalue = 922.1124"] ;
179 -> 207 ;
208 [label="mse = 0.0\nsamples = 18\nvalue = 918.1838"] ;
207 -> 208 ;
209 [label="mse = 0.0\nsamples = 10\nvalue = 929.1838"] ;
207 -> 209 ;
210 [label="X[47] <= 0.5\nmse = 43.0798\nsamples = 392\nvalue = 929.5031"] ;
4 -> 210 ;
211 [label="X[22] <= 0.5\nmse = 17.2377\nsamples = 127\nvalue = 921.1541"] ;
210 -> 211 ;
212 [label="X[35] <= 0.5\nmse = 3.1675\nsamples = 107\nvalue = 922.8043"] ;
211 -> 212 ;
213 [label="mse = 0.0\nsamples = 100\nvalue = 923.1066"] ;
212 -> 213 ;
214 [label="X[6] <= 0.5\nmse = 28.465\nsamples = 7\nvalue = 918.4861"] ;
212 -> 214 ;
215 [label="mse = -0.0\nsamples = 4\nvalue = 923.1066"] ;
214 -> 215 ;
216 [label="mse = 0.0\nsamples = 3\nvalue = 912.3255"] ;
214 -> 216 ;
217 [label="mse = -0.0\nsamples = 20\nvalue = 912.3255"] ;
211 -> 217 ;
218 [label="X[22] <= 0.5\nmse = 6.0487\nsamples = 265\nvalue = 933.5043"] ;
210 -> 218 ;
219 [label="mse = 0.0\nsamples = 250\nvalue = 934.1066"] ;
218 -> 219 ;
220 [label="X[29] <= 0.5\nmse = 0.0546\nsamples = 15\nvalue = 923.4664"] ;
218 -> 220 ;
221 [label="mse = -0.0\nsamples = 11\nvalue = 923.3255"] ;
220 -> 221 ;
222 [label="mse = 0.0\nsamples = 4\nvalue = 923.8539"] ;
220 -> 222 ;
223 [label="X[7] <= 0.5\nmse = 109064.9018\nsamples = 122\nvalue = 748.1683"] ;
3 -> 223 ;
224 [label="X[19] <= 0.5\nmse = 98256.6482\nsamples = 119\nvalue = 766.4272"] ;
223 -> 224 ;
225 [label="X[14] <= 0.5\nmse = 90350.3538\nsamples = 117\nvalue = 779.12"] ;
224 -> 225 ;
226 [label="X[22] <= 0.5\nmse = 115506.4551\nsamples = 85\nvalue = 729.9619"] ;
225 -> 226 ;
227 [label="X[27] <= 0.5\nmse = 75003.7222\nsamples = 66\nvalue = 818.6162"] ;
226 -> 227 ;
228 [label="X[10] <= 0.5\nmse = 15588.7854\nsamples = 50\nvalue = 895.2623"] ;
227 -> 228 ;
229 [label="X[2] <= 0.5\nmse = 94.0703\nsamples = 38\nvalue = 915.2312"] ;
228 -> 229 ;
230 [label="X[4] <= 0.5\nmse = 79.369\nsamples = 21\nvalue = 908.8558"] ;
229 -> 230 ;
231 [label="X[15] <= 0.5\nmse = 5.7955\nsamples = 19\nvalue = 911.6492"] ;
230 -> 231 ;
232 [label="mse = 0.0\nsamples = 1\nvalue = 901.4355"] ;
231 -> 232 ;
233 [label="mse = 0.0\nsamples = 18\nvalue = 912.2166"] ;
231 -> 233 ;
234 [label="mse = -0.0\nsamples = 2\nvalue = 882.3192"] ;
230 -> 234 ;
235 [label="mse = 0.0\nsamples = 17\nvalue = 923.1066"] ;
229 -> 235 ;
236 [label="X[3] <= 0.5\nmse = 59394.0108\nsamples = 12\nvalue = 832.0275"] ;
228 -> 236 ;
237 [label="X[8] <= 0.5\nmse = 12.2069\nsamples = 8\nvalue = 902.9727"] ;
236 -> 237 ;
238 [label="mse = 0.0\nsamples = 1\nvalue = 912.2166"] ;
237 -> 238 ;
239 [label="mse = -0.0\nsamples = 7\nvalue = 901.6522"] ;
237 -> 239 ;
240 [label="mse = 147958.2099\nsamples = 4\nvalue = 690.1369"] ;
236 -> 240 ;
241 [label="mse = 184947.7624\nsamples = 16\nvalue = 579.097"] ;
227 -> 241 ;
242 [label="X[24] <= 0.5\nmse = 134061.023\nsamples = 19\nvalue = 422.005"] ;
226 -> 242 ;
243 [label="mse = -0.0\nsamples = 3\nvalue = 912.3255"] ;
242 -> 243 ;
244 [label="X[28] <= 0.5\nmse = 105667.7458\nsamples = 16\nvalue = 330.0699"] ;
242 -> 244 ;
245 [label="mse = 0.0\nsamples = 6\nvalue = 142.3931"] ;
244 -> 245 ;
246 [label="mse = 135254.7146\nsamples = 10\nvalue = 442.676"] ;
244 -> 246 ;
247 [label="X[2] <= 0.5\nmse = 60.4078\nsamples = 32\nvalue = 909.6963"] ;
225 -> 247 ;
248 [label="X[16] <= 0.5\nmse = 39.6766\nsamples = 28\nvalue = 907.7806"] ;
247 -> 248 ;
249 [label="X[32] <= 0.5\nmse = 43.6061\nsamples = 16\nvalue = 904.4535"] ;
248 -> 249 ;
250 [label="X[33] <= 0.5\nmse = 19.0566\nsamples = 14\nvalue = 902.4921"] ;
249 -> 250 ;
251 [label="X[5] <= 0.5\nmse = 15.2808\nsamples = 12\nvalue = 903.4886"] ;
250 -> 251 ;
252 [label="X[29] <= 0.5\nmse = 0.0544\nsamples = 10\nvalue = 901.743"] ;
251 -> 252 ;
253 [label="X[10] <= 0.5\nmse = 0.0113\nsamples = 5\nvalue = 901.5222"] ;
252 -> 253 ;
254 [label="mse = 0.0\nsamples = 3\nvalue = 901.4355"] ;
253 -> 254 ;
255 [label="mse = -0.0\nsamples = 2\nvalue = 901.6522"] ;
253 -> 255 ;
256 [label="mse = -0.0\nsamples = 5\nvalue = 901.9639"] ;
252 -> 256 ;
257 [label="mse = 0.0\nsamples = 2\nvalue = 912.2166"] ;
251 -> 257 ;
258 [label="mse = -0.0\nsamples = 2\nvalue = 896.5127"] ;
250 -> 258 ;
259 [label="mse = 0.0\nsamples = 2\nvalue = 918.1838"] ;
249 -> 259 ;
260 [label="mse = -0.0\nsamples = 12\nvalue = 912.2166"] ;
248 -> 260 ;
261 [label="mse = 0.0\nsamples = 4\nvalue = 923.1066"] ;
247 -> 261 ;
262 [label="mse = -0.0\nsamples = 2\nvalue = 23.8977"] ;
224 -> 262 ;
263 [label="mse = -0.0\nsamples = 3\nvalue = 23.8977"] ;
223 -> 263 ;
264 [label="X[0] <= 0.5\nmse = 139571.2164\nsamples = 582\nvalue = 733.8666"] ;
2 -> 264 ;
265 [label="X[22] <= 0.5\nmse = 11.8295\nsamples = 200\nvalue = 921.8668"] ;
264 -> 265 ;
266 [label="mse = 0.0\nsamples = 177\nvalue = 923.1066"] ;
265 -> 266 ;
267 [label="mse = -0.0\nsamples = 23\nvalue = 912.3255"] ;
265 -> 267 ;
268 [label="X[19] <= 0.5\nmse = 184445.8806\nsamples = 382\nvalue = 635.4373"] ;
264 -> 268 ;
269 [label="X[16] <= 0.5\nmse = 171062.2683\nsamples = 362\nvalue = 667.0102"] ;
268 -> 269 ;
270 [label="X[23] <= 0.5\nmse = 158868.5811\nsamples = 341\nvalue = 692.8192"] ;
269 -> 270 ;
271 [label="X[11] <= 0.5\nmse = 173036.0694\nsamples = 298\nvalue = 659.5898"] ;
270 -> 271 ;
272 [label="X[20] <= 0.5\nmse = 187813.0039\nsamples = 218\nvalue = 623.8299"] ;
271 -> 272 ;
273 [label="X[4] <= 0.5\nmse = 181947.9395\nsamples = 211\nvalue = 640.4133"] ;
272 -> 273 ;
274 [label="X[6] <= 0.5\nmse = 170163.9384\nsamples = 177\nvalue = 673.838"] ;
273 -> 274 ;
275 [label="X[21] <= 0.5\nmse = 75756.4169\nsamples = 40\nvalue = 831.4029"] ;
274 -> 275 ;
276 [label="mse = 0.0\nsamples = 1\nvalue = 51.9821"] ;
275 -> 276 ;
277 [label="X[28] <= 0.5\nmse = 61722.6443\nsamples = 39\nvalue = 851.388"] ;
275 -> 277 ;
278 [label="mse = -0.0\nsamples = 7\nvalue = 923.1066"] ;
277 -> 278 ;
279 [label="mse = 73853.1933\nsamples = 32\nvalue = 835.6996"] ;
277 -> 279 ;
280 [label="X[29] <= 0.5\nmse = 188363.1151\nsamples = 137\nvalue = 627.8337"] ;
274 -> 280 ;
281 [label="X[12] <= 0.5\nmse = 195245.2165\nsamples = 128\nvalue = 607.3927"] ;
280 -> 281 ;
282 [label="X[21] <= 0.5\nmse = 21.7935\nsamples = 4\nvalue = 920.4113"] ;
281 -> 282 ;
283 [label="mse = 0.0\nsamples = 1\nvalue = 912.3255"] ;
282 -> 283 ;
284 [label="mse = -0.0\nsamples = 3\nvalue = 923.1066"] ;
282 -> 284 ;
285 [label="X[21] <= 0.5\nmse = 198280.1236\nsamples = 124\nvalue = 597.2954"] ;
281 -> 285 ;
286 [label="mse = 208495.0564\nsamples = 12\nvalue = 447.3777"] ;
285 -> 286 ;
287 [label="X[24] <= 0.5\nmse = 194519.5922\nsamples = 112\nvalue = 613.358"] ;
285 -> 287 ;
288 [label="mse = 169969.7248\nsamples = 31\nvalue = 679.9607"] ;
287 -> 288 ;
289 [label="X[5] <= 0.5\nmse = 201567.7807\nsamples = 81\nvalue = 587.868"] ;
287 -> 289 ;
290 [label="X[10] <= 0.5\nmse = 201752.603\nsamples = 71\nvalue = 581.6858"] ;
289 -> 290 ;
291 [label="mse = 202018.9089\nsamples = 49\nvalue = 580.6138"] ;
290 -> 291 ;
292 [label="mse = 201151.2072\nsamples = 22\nvalue = 584.0733"] ;
290 -> 292 ;
293 [label="mse = 198057.5172\nsamples = 10\nvalue = 631.7618"] ;
289 -> 293 ;
294 [label="X[21] <= 0.5\nmse = 25.9551\nsamples = 9\nvalue = 918.5498"] ;
280 -> 294 ;
295 [label="mse = 0.0\nsamples = 4\nvalue = 912.8539"] ;
294 -> 295 ;
296 [label="mse = 0.0\nsamples = 5\nvalue = 923.1066"] ;
294 -> 296 ;
297 [label="X[10] <= 0.5\nmse = 207200.227\nsamples = 34\nvalue = 466.4083"] ;
273 -> 297 ;
298 [label="X[24] <= 0.5\nmse = 204402.8177\nsamples = 29\nvalue = 541.2344"] ;
297 -> 298 ;
299 [label="mse = 0.0\nsamples = 3\nvalue = -19.0836"] ;
298 -> 299 ;
300 [label="X[22] <= 0.5\nmse = 187582.1408\nsamples = 26\nvalue = 605.8865"] ;
298 -> 300 ;
301 [label="X[14] <= 0.5\nmse = 201510.0858\nsamples = 22\nvalue = 550.1704"] ;
300 -> 301 ;
302 [label="X[28] <= 0.5\nmse = 197756.7806\nsamples = 20\nvalue = 596.7871"] ;
301 -> 302 ;
303 [label="mse = 0.0\nsamples = 4\nvalue = 923.1066"] ;
302 -> 303 ;
304 [label="mse = 213919.5944\nsamples = 16\nvalue = 515.2072"] ;
302 -> 304 ;
305 [label="mse = 0.0\nsamples = 2\nvalue = 84.0031"] ;
301 -> 305 ;
306 [label="mse = -0.0\nsamples = 4\nvalue = 912.3255"] ;
300 -> 306 ;
307 [label="X[30] <= 0.5\nmse = 2602.2297\nsamples = 5\nvalue = 32.4163"] ;
297 -> 307 ;
308 [label="mse = 0.0\nsamples = 2\nvalue = 94.8931"] ;
307 -> 308 ;
309 [label="mse = -0.0\nsamples = 3\nvalue = -9.2349"] ;
307 -> 309 ;
310 [label="mse = 106440.0703\nsamples = 7\nvalue = 123.9568"] ;
272 -> 310 ;
311 [label="X[30] <= 0.5\nmse = 119788.5707\nsamples = 80\nvalue = 757.0357"] ;
271 -> 311 ;
312 [label="X[20] <= 0.5\nmse = 150796.3597\nsamples = 58\nvalue = 694.0432"] ;
311 -> 312 ;
313 [label="X[6] <= 0.5\nmse = 167086.1744\nsamples = 49\nvalue = 651.9704"] ;
312 -> 313 ;
314 [label="mse = 208361.4605\nsamples = 7\nvalue = 396.0247"] ;
313 -> 314 ;
315 [label="X[4] <= 0.5\nmse = 147469.2598\nsamples = 42\nvalue = 694.628"] ;
313 -> 315 ;
316 [label="X[28] <= 0.5\nmse = 124842.6457\nsamples = 36\nvalue = 734.2433"] ;
315 -> 316 ;
317 [label="mse = 0.0\nsamples = 5\nvalue = 923.1066"] ;
316 -> 317 ;
318 [label="mse = 138297.5169\nsamples = 31\nvalue = 703.7815"] ;
316 -> 318 ;
319 [label="mse = 217315.1435\nsamples = 6\nvalue = 456.9359"] ;
315 -> 319 ;
320 [label="mse = -0.0\nsamples = 9\nvalue = 923.1066"] ;
312 -> 320 ;
321 [label="mse = -0.0\nsamples = 22\nvalue = 923.1066"] ;
311 -> 321 ;
322 [label="mse = 0.0\nsamples = 43\nvalue = 923.1066"] ;
270 -> 322 ;
323 [label="X[20] <= 0.5\nmse = 182613.3352\nsamples = 21\nvalue = 247.922"] ;
269 -> 323 ;
324 [label="X[31] <= 0.5\nmse = 124406.6791\nsamples = 18\nvalue = 135.3912"] ;
323 -> 324 ;
325 [label="X[5] <= 0.5\nmse = 93077.9416\nsamples = 17\nvalue = 89.055"] ;
324 -> 325 ;
326 [label="X[11] <= 0.5\nmse = 55809.2711\nsamples = 15\nvalue = 41.9544"] ;
325 -> 326 ;
327 [label="X[4] <= 0.5\nmse = 375.043\nsamples = 14\nvalue = -20.9851"] ;
326 -> 327 ;
328 [label="X[26] <= 0.5\nmse = 14.4294\nsamples = 11\nvalue = -11.0255"] ;
327 -> 328 ;
329 [label="mse = 0.0\nsamples = 9\nvalue = -9.2349"] ;
328 -> 329 ;
330 [label="mse = 0.0\nsamples = 2\nvalue = -19.0836"] ;
328 -> 330 ;
331 [label="mse = -0.0\nsamples = 3\nvalue = -57.5034"] ;
327 -> 331 ;
332 [label="mse = -0.0\nsamples = 1\nvalue = 923.1066"] ;
326 -> 332 ;
333 [label="X[11] <= 0.5\nmse = 231165.3382\nsamples = 2\nvalue = 442.31"] ;
325 -> 333 ;
334 [label="mse = 0.0\nsamples = 1\nvalue = 923.1066"] ;
333 -> 334 ;
335 [label="mse = -0.0\nsamples = 1\nvalue = -38.4865"] ;
333 -> 335 ;
336 [label="mse = -0.0\nsamples = 1\nvalue = 923.1066"] ;
324 -> 336 ;
337 [label="mse = 0.0\nsamples = 3\nvalue = 923.1066"] ;
323 -> 337 ;
338 [label="X[4] <= 0.5\nmse = 82067.2744\nsamples = 20\nvalue = 63.9664"] ;
268 -> 338 ;
339 [label="X[16] <= 0.5\nmse = 59.7041\nsamples = 18\nvalue = -31.4936"] ;
338 -> 339 ;
340 [label="X[24] <= 0.5\nmse = 5.9153\nsamples = 15\nvalue = -28.1838"] ;
339 -> 340 ;
341 [label="mse = 0.0\nsamples = 1\nvalue = -19.0836"] ;
340 -> 341 ;
342 [label="mse = -0.0\nsamples = 14\nvalue = -28.8338"] ;
340 -> 342 ;
343 [label="mse = -0.0\nsamples = 3\nvalue = -48.0427"] ;
339 -> 343 ;
344 [label="mse = 0.0\nsamples = 2\nvalue = 923.1066"] ;
338 -> 344 ;
345 [label="X[22] <= 0.5\nmse = 3794.8373\nsamples = 92\nvalue = 59.0578"] ;
1 -> 345 ;
346 [label="X[38] <= 0.5\nmse = 84.4741\nsamples = 48\nvalue = 20.9492"] ;
345 -> 346 ;
347 [label="X[47] <= 0.5\nmse = 1.7991\nsamples = 44\nvalue = 23.6932"] ;
346 -> 347 ;
348 [label="mse = 0.0\nsamples = 43\nvalue = 23.8977"] ;
347 -> 348 ;
349 [label="mse = 0.0\nsamples = 1\nvalue = 14.8977"] ;
347 -> 349 ;
350 [label="mse = 0.0\nsamples = 4\nvalue = -9.2349"] ;
346 -> 350 ;
351 [label="X[38] <= 0.5\nmse = 4529.8867\nsamples = 44\nvalue = 100.6309"] ;
345 -> 351 ;
352 [label="X[47] <= 0.5\nmse = 4.7461\nsamples = 32\nvalue = 141.8306"] ;
351 -> 352 ;
353 [label="mse = -0.0\nsamples = 30\nvalue = 142.3931"] ;
352 -> 353 ;
354 [label="mse = -0.0\nsamples = 2\nvalue = 133.3931"] ;
352 -> 354 ;
355 [label="mse = -0.0\nsamples = 12\nvalue = -9.2349"] ;
351 -> 355 ;
356 [label="X[14] <= 0.5\nmse = 1009.2203\nsamples = 828\nvalue = -9.2361"] ;
0 -> 356 [labeldistance=2.5, labelangle=-45, headlabel="False"] ;
357 [label="X[19] <= 0.5\nmse = 525.0151\nsamples = 770\nvalue = -15.0921"] ;
356 -> 357 ;
358 [label="X[11] <= 0.5\nmse = 536.7862\nsamples = 600\nvalue = -10.1825"] ;
357 -> 358 ;
359 [label="X[5] <= 0.5\nmse = 109.9099\nsamples = 526\nvalue = -14.6291"] ;
358 -> 359 ;
360 [label="X[26] <= 0.5\nmse = 75.0466\nsamples = 509\nvalue = -13.5132"] ;
359 -> 360 ;
361 [label="X[44] <= 0.5\nmse = 28.2279\nsamples = 384\nvalue = -10.5587"] ;
360 -> 361 ;
362 [label="X[47] <= 0.5\nmse = 3.2838\nsamples = 369\nvalue = -9.6076"] ;
361 -> 362 ;
363 [label="X[46] <= 0.5\nmse = 0.8083\nsamples = 357\nvalue = -9.3176"] ;
362 -> 363 ;
364 [label="mse = 0.0\nsamples = 354\nvalue = -9.2349"] ;
363 -> 364 ;
365 [label="mse = -0.0\nsamples = 3\nvalue = -19.0836"] ;
363 -> 365 ;
366 [label="mse = 0.0\nsamples = 12\nvalue = -18.2349"] ;
362 -> 366 ;
367 [label="X[9] <= 0.5\nmse = 72.1567\nsamples = 15\nvalue = -33.9562"] ;
361 -> 367 ;
368 [label="mse = 0.0\nsamples = 4\nvalue = -48.0427"] ;
367 -> 368 ;
369 [label="mse = 0.0\nsamples = 11\nvalue = -28.8338"] ;
367 -> 369 ;
370 [label="X[3] <= 0.5\nmse = 109.6854\nsamples = 125\nvalue = -22.5892"] ;
360 -> 370 ;
371 [label="X[16] <= 0.5\nmse = 362.7422\nsamples = 23\nvalue = -35.7878"] ;
370 -> 371 ;
372 [label="mse = 0.0\nsamples = 13\nvalue = -19.0836"] ;
371 -> 372 ;
373 [label="mse = -0.0\nsamples = 10\nvalue = -57.5034"] ;
371 -> 373 ;
374 [label="X[47] <= 0.5\nmse = 4.4844\nsamples = 102\nvalue = -19.613"] ;
370 -> 374 ;
375 [label="mse = 0.0\nsamples = 96\nvalue = -19.0836"] ;
374 -> 375 ;
376 [label="mse = 0.0\nsamples = 6\nvalue = -28.0836"] ;
374 -> 376 ;
377 [label="mse = 0.0\nsamples = 17\nvalue = -48.0427"] ;
359 -> 377 ;
378 [label="X[3] <= 0.5\nmse = 2431.4943\nsamples = 74\nvalue = 21.4249"] ;
358 -> 378 ;
379 [label="X[16] <= 0.5\nmse = 329.5932\nsamples = 22\nvalue = -33.5012"] ;
378 -> 379 ;
380 [label="mse = 0.0\nsamples = 7\nvalue = -9.2349"] ;
379 -> 380 ;
381 [label="X[4] <= 0.5\nmse = 80.3645\nsamples = 15\nvalue = -44.8255"] ;
379 -> 381 ;
382 [label="mse = 0.0\nsamples = 10\nvalue = -38.4865"] ;
381 -> 382 ;
383 [label="mse = -0.0\nsamples = 5\nvalue = -57.5034"] ;
381 -> 383 ;
384 [label="X[8] <= 0.5\nmse = 1504.3848\nsamples = 52\nvalue = 44.6629"] ;
378 -> 384 ;
385 [label="X[40] <= 0.5\nmse = 289.0398\nsamples = 35\nvalue = 69.3866"] ;
384 -> 385 ;
386 [label="X[42] <= 0.5\nmse = 3.4155\nsamples = 33\nvalue = 73.5487"] ;
385 -> 386 ;
387 [label="mse = 0.0\nsamples = 32\nvalue = 73.222"] ;
386 -> 387 ;
388 [label="mse = -0.0\nsamples = 1\nvalue = 84.0031"] ;
386 -> 388 ;
389 [label="mse = 0.0\nsamples = 2\nvalue = 0.7133"] ;
385 -> 389 ;
390 [label="X[44] <= 0.5\nmse = 157.0858\nsamples = 17\nvalue = -6.2389"] ;
384 -> 390 ;
391 [label="mse = -0.0\nsamples = 13\nvalue = 0.7133"] ;
390 -> 391 ;
392 [label="mse = 0.0\nsamples = 4\nvalue = -28.8338"] ;
390 -> 392 ;
393 [label="X[10] <= 0.5\nmse = 98.1319\nsamples = 170\nvalue = -32.4202"] ;
357 -> 393 ;
394 [label="X[24] <= 0.5\nmse = 23.9706\nsamples = 128\nvalue = -27.2941"] ;
393 -> 394 ;
395 [label="mse = 0.0\nsamples = 26\nvalue = -19.0836"] ;
394 -> 395 ;
396 [label="X[16] <= 0.5\nmse = 8.5173\nsamples = 102\nvalue = -29.3869"] ;
394 -> 396 ;
397 [label="X[47] <= 0.5\nmse = 1.6357\nsamples = 97\nvalue = -29.0194"] ;
396 -> 397 ;
398 [label="mse = -0.0\nsamples = 95\nvalue = -28.8338"] ;
397 -> 398 ;
399 [label="mse = -0.0\nsamples = 2\nvalue = -37.8338"] ;
397 -> 399 ;
400 [label="X[38] <= 0.5\nmse = 88.556\nsamples = 5\nvalue = -36.5174"] ;
396 -> 400 ;
401 [label="mse = 0.0\nsamples = 2\nvalue = -48.0427"] ;
400 -> 401 ;
402 [label="mse = 0.0\nsamples = 3\nvalue = -28.8338"] ;
400 -> 402 ;
403 [label="mse = -0.0\nsamples = 42\nvalue = -48.0427"] ;
393 -> 403 ;
404 [label="X[21] <= 0.5\nmse = 938.0671\nsamples = 58\nvalue = 68.5079"] ;
356 -> 404 ;
405 [label="X[9] <= 0.5\nmse = 582.0849\nsamples = 26\nvalue = 40.2096"] ;
404 -> 405 ;
406 [label="mse = 0.0\nsamples = 5\nvalue = -9.2349"] ;
405 -> 406 ;
407 [label="mse = 0.0\nsamples = 21\nvalue = 51.9821"] ;
405 -> 407 ;
408 [label="X[10] <= 0.5\nmse = 48.0106\nsamples = 32\nvalue = 91.5002"] ;
404 -> 408 ;
409 [label="X[24] <= 0.5\nmse = 7.8658\nsamples = 14\nvalue = 84.7809"] ;
408 -> 409 ;
410 [label="mse = 0.0\nsamples = 1\nvalue = 94.8931"] ;
409 -> 410 ;
411 [label="mse = -0.0\nsamples = 13\nvalue = 84.0031"] ;
409 -> 411 ;
412 [label="X[47] <= 0.5\nmse = 16.8056\nsamples = 18\nvalue = 96.7264"] ;
408 -> 412 ;
413 [label="mse = 0.0\nsamples = 15\nvalue = 94.8931"] ;
412 -> 413 ;
414 [label="mse = 0.0\nsamples = 3\nvalue = 105.8931"] ;
412 -> 414 ;
}